{"meta": "linear-regression", "coef_": [1.3306732811122017e-11, -9.636797328798633e-11, -3.7959618064090687e-13, -6.897319003895239e-13, -1.9980201182128742e-13, -1.7678082490082288e-14, 2.4922181994158004e-11, -1.3099396953200716e-12, 3.9759809033151386e-13, 3.8320266176852675e-12, 1.9982958026000184e-14, 1.1624868625462589e-15, -2.5528395324257354e-14, -2.532113820938893e-13, -1.5302143388227325e-16, -1.0896899735587708e-14, 3.1211580674020113e-13, 5.0040698807323754e-17, 2.540105405082913e-12, 2.599879469986647e-15, 4.899594207174886e-18, 2.4579628808269523e-13, -9.288058466306916e-11, -7.75044135993942e-12, -3.865506565172077e-11, 4.02777636316891e-09, -1.8360422853446507e-10, -2.4364117560770726e-09, -3.21337891110019e-08, -1.2669226028890403e-11, 8.830455752026757e-11, -1.5832642671518231e-09, 3.86251973530081e-11, 1.2429504621002278e-11, 3.313499850324523e-10, 3.483986407007564e-13, 8.030089878368937e-12, 3.3374197695711466e-12, 4.776821817053944e-12, -4.7951047863549146e-14, -4.738528820533687e-11, -4.802090237300659e-10, -4.255381165212122e-13, 2.816672774174282e-09, -2.672288579771011e-12, -2.5046132746635947e-15, -3.139090125775425e-11, 4.831402700069669e-10, -1.2912179649170643e-13, 3.400938053849009e-10, 4.818532555052748e-12, 2.3549956253225074e-15, -4.4954499003192894e-13, 8.663554349840826e-11, 4.2813970718512316e-14, 1.8447332199548916e-17, 3.36371521871429e-20, 1.434063185422785e-16, -6.893801991028941e-17, 1.0516021177822923e-18, 9.914029527217458e-17, -1.079425757001558e-13, -1.4708940228477705e-14, -1.0857111269265275e-16, -7.330089295335592e-12, 4.8260192155936474e-15, 9.581060575936145e-15, -2.025175350550825e-12, -4.083912725626392e-19, 1.2161616911769435e-13, -1.2436055280606707e-10, -5.1272405193189305e-11, 2.827792615521686e-12, 7.004550421860747e-13, -5.119400865216074e-09, 5.866948371350817e-12, 8.169280676396011e-12, -8.9119211369048e-10, -3.8689383823507475e-16, 1.2450991296654387e-10, -6.244483324952904e-10, -2.660060672891501e-14, 3.8876076056940537e-13, 2.1785025880136974e-11, -3.341787372290145e-15, 3.2470251005242065e-12, 7.07858077042856e-10, -4.684116125161734e-20, 2.9184812000600645e-14, 1.6556022795391683e-09, 3.4517064704691105e-12, 5.220804356251635e-08, 4.51897621664687e-08, -4.222958202517174e-10, -2.618607777663724e-11, 1.2036013022780012e-08, -1.0174962699175061e-10, -2.8224595131650715e-10, 4.180242367650766e-14, -9.2288749579415e-09, 3.552455258139248e-13, 1.1659814745724353e-09, -2.711265359657507e-10, -1.0213676350924768e-09, -8.026332046769515e-13, -4.697053262190313e-09, -7.765670921883703e-12, -1.5646220191877062e-17, 3.157047224907113e-11, -2.0097957798138893e-11, -2.825947785259892e-14, 4.201619102153436e-11, -2.816021711354641e-12, -1.540464244765285e-09, -4.4330998572473515e-14, 5.089461693009951e-10, 3.4807165358826674e-12, 6.988478257956746e-17, -1.9403862614609437e-11, 9.569439400887187e-11, 5.144756598147404e-14, 5.674394378628414e-21, 1.3782345519397802e-14, 1.8598829276603552e-09, 9.204518137448244e-13, 2.8594867230007265e-16], "intercept_": 645.6824930249204, "params": {"copy_X": true, "fit_intercept": true, "n_jobs": null, "normalize": false}}