{"meta": "linear-regression", "coef_": [3.42942335395905e-10, 7.691585145437744e-07, -4.760687954432895e-09, 1.9312393992038937e-10, -2.715938810701393e-10, -1.9301305308474363e-10, -1.4885303680301411e-05, -1.5002578752087218e-07, -8.352436196612169e-07, -1.5660035694996157e-06, 1.3358824817696715e-08, -1.8917528171080852e-08, -2.3301422948239117e-08, -5.597720728743786e-08, -1.3247201948924712e-09, 2.6577189141067785e-10, -3.056290486499481e-08, -8.709489417676004e-09, -2.1877387241013037e-07, -1.4007138945279402e-08, -6.230236869824522e-11, 4.772798367455306e-12, 7.225382459068431e-09, 9.648434831169818e-09, 1.8154620554325455e-10, -1.203935222466771e-06, -5.004171810238839e-07, -1.8179730076443977e-08, -9.850999526752426e-08, -7.982368036829251e-06, -2.0745797616081142e-07, -2.3776825062445005e-08, 2.9011514943227237e-05, -5.80857147659449e-08, 7.222010946419075e-05, 2.3934593797305574e-07, -4.4339049438341127e-05, -4.270208848453837e-05, 3.929539934467332e-05, -8.178162644239166e-07, 1.154023742105058e-05, -6.063533857101166e-06, -2.302100378577414e-06, 3.9694617885135676e-07, -3.386135374586949e-06, -1.599798247202419e-08, 1.4406774629255233e-06, -2.459934357246521e-06, -1.6813808989849556e-05, 9.175942664728598e-07, -2.6903177782029034e-05, -1.222179728690089e-07, -4.979482157125856e-08, -5.1183673425770586e-05, -1.925655128441591e-07, -7.138635478116743e-10, -5.650768549370251e-19, -5.562024907486418e-16, -1.300321781944492e-15, 2.80454726418267e-17, 6.00223817927314e-14, 2.650071129940181e-13, -2.05959675901513e-12, -4.0900518140775475e-14, 5.469470413889724e-11, -1.0478878393016913e-12, -7.441217740611767e-14, 5.873344087082709e-11, 5.235027626440659e-15, 1.929247611986214e-12, 3.231173659740233e-08, -1.0161316841898434e-11, 7.910870146253158e-11, -1.1649167259583594e-11, 1.0585604536753217e-08, 4.355767163479547e-11, 3.546521267917932e-11, -1.4517767078517691e-08, 1.2547204926796358e-16, -5.003665148664247e-10, 1.3930457736050057e-06, 4.2451504222344735e-11, -2.3542751839209365e-11, -2.082781575588169e-09, 1.4964059793186245e-11, 2.3215818933472278e-10, -6.928707343907999e-07, 6.266424367389967e-14, -2.1408992441299005e-10, -2.501965630717916e-06, 7.131516254575184e-07, -6.009748756109279e-09, 6.475015012565692e-09, 8.579135880318404e-10, 7.226256288452997e-07, 1.2479837073053105e-08, -1.0638178726428534e-08, -3.311526873409822e-08, -4.635646614300324e-11, 2.2505909607391996e-07, -1.932310877033136e-05, -1.509451666069955e-09, 5.444858433463891e-10, -2.0793578181486564e-07, 4.1946265842613955e-10, -5.4477755146264e-08, 3.737037509172579e-07, -3.923250825387373e-11, -4.9671193865093206e-08, 2.758555985143339e-05, -2.1576035989829082e-09, -8.821051630301829e-10, 1.1057856430953634e-09, 1.4502172605593692e-07, -4.100426788501436e-10, -8.018518367998918e-08, -6.7988232534756645e-06, 3.390769285375263e-11, 4.6800706697004714e-08, -3.0832961002922806e-06, -1.386904498549316e-07, -2.2449611542130373e-13, -4.593836530459474e-09, 1.2103781413160245e-06, -1.0164255140254528e-07, -2.2726437656322582e-09], "intercept_": 2043.7079307343356, "params": {"copy_X": true, "fit_intercept": true, "n_jobs": null, "normalize": false}}