{"meta": "linear-regression", "coef_": [-1.322097439442063e-12, 8.874503299673671e-10, -1.784999956785824e-11, -8.04480992874561e-12, -1.964128976793263e-11, -6.8198108144627394e-09, 1.216692502310003e-10, -3.6593021527339356e-11, -2.8699044393133096e-10, -5.8238368967859305e-12, 3.8632712916357725e-12, 1.0526888196795901e-11, 3.3504247833557978e-12, 1.5985893107737167e-10, -1.0433127943620454e-09, -2.5256321008950967e-12, -2.1681092370425474e-09, -4.2190973846527745e-10, 1.441007254859672e-10, -4.75516899872842e-07, 1.745780447817882e-07, -7.320457359195575e-08, 9.723880564250604e-08, -2.7443704317132215e-08, 2.6580900732587158e-11, 2.1460358087445374e-09, -1.0872202126074609e-08, -1.820274389846353e-08, 6.372146000765963e-09, 1.8395390062791e-08, -9.390152834776128e-09, 9.511307900346717e-09, 3.2975113635699637e-07, 6.460871382565732e-10, -1.8854608612880827e-12, 1.437949838852928e-19, -3.854836235489032e-17, 6.821108045842429e-16, -9.424407862867791e-18, 6.490869723091357e-15, 5.879553963621861e-13, 5.034548556453338e-15, 1.0473288288967225e-13, -3.4862031569840083e-14, -2.070337120269172e-18, 1.61194709528596e-12, 1.474157864448571e-10, -1.086218716471617e-11, -4.1511848137161513e-11, 1.6225026933358618e-11, -3.0538524614991395e-16, -2.49870781321796e-11, 6.895243287580065e-12, -6.687777762867431e-15, -1.4062013544734357e-19, -2.869403475721103e-11, 1.3049298711934285e-09, -8.828302626597693e-10, -8.053334631456809e-10, 9.768442621984451e-10, 1.7541112756678349e-12, -5.646468705819836e-11, 3.6548119514686665e-11, 2.3503849652526818e-12, 1.9737538870545648e-16, 9.217763592297381e-11, -7.720816125629923e-11, -1.5369387819943256e-13, 4.2682753327618305e-16, 5.894499384810532e-20], "intercept_": -12454.033642973343, "params": {"copy_X": true, "fit_intercept": true, "n_jobs": null, "normalize": false}}