{"meta": "linear-regression", "coef_": [-3.734110402416325e-15, -2.9042794026337922e-12, 8.519874543941852e-13, 5.275268174657496e-12, 3.7116068056688605e-12, -2.606156110569902e-12, -1.3453718172501973e-12, -1.8677280148129524e-13, -4.561563868873813e-14, -3.9240019796080974e-13, 5.63621090392702e-13, -1.1179110265828131e-13, -7.464074024471074e-14, -3.8748061421535467e-13, -6.305761488289111e-13, -3.022689398092256e-13, -2.0816066553313125e-13, -3.510336518455013e-15, -1.5144842361127816e-13, -7.959521528883496e-14, 1.7116213701040133e-14, 2.407906930591738e-15, -1.4632537309455805e-14, 1.456024928597419e-15, -1.4325295532734131e-15, 2.6777225388295256e-15, 1.1937781892343547e-15, 1.1406313798381253e-15, -4.1245710233729757e-16, 7.590925474325824e-17, 2.0408562085570196e-16, -6.238657191798586e-17, -4.1687197967124384e-17, -7.748254743418299e-15, 7.594633978097829e-18, 7.2038805374900515e-19, 2.967218357930092e-16, -1.4929320096805204e-16, 5.0961131139848235e-14, -1.9415281928992457e-13, 3.736850341845674e-12, -9.58458867721657e-15, -1.2486173630565127e-12, -3.6699668365624405e-15, -3.939562662401376e-12, -6.585628017443645e-14, -1.0585084542798999e-11, 2.926944194147809e-13, 4.6584753158507974e-11, 4.867471225695229e-13, 1.6347496171781192e-11, 1.5120661050431518e-13, -2.1302028080213464e-12, 6.022324399258157e-13, 5.85386467762776e-11, 3.705542329176985e-13, 3.480453723741964e-12, 2.9886359496681964e-13, 1.2292020251717172e-16, -3.0840003011248755e-12, 2.3062312379972657e-15, 1.9232289502710642e-13, 5.479575418564922e-12, 3.0780462006990683e-15, -3.5489321931495385e-15, 2.1408727245283624e-11, 2.566952539014894e-12, 2.2413915755195737e-12, -8.149460684657488e-13, 6.416954452524248e-12, 2.2729455717976064e-12, -1.1015238752809342e-12, -1.9681711878293358e-14, 5.803569030042796e-11, 3.130237130954222e-14, -2.8014099188583567e-12, -5.196108017443315e-14, -7.816209761938283e-11, 7.408316438202726e-14, -5.379957888505428e-16, -1.2029507863051722e-12, 6.594281347644338e-16, -3.924148264310184e-12, 1.1742756282538826e-12, 4.3549660172331255e-16, 2.130437127370203e-14, 1.9979538979124287e-14, 1.7331103234221859e-16, 4.191407100901851e-13, 5.21220090881128e-18, 2.649812126604768e-14, 2.7261021420776466e-16, -5.229266747969496e-14, 1.9471473719189686e-15, 1.1874583609257197e-18, -7.255937102646443e-16, 1.2861983519041843e-17, -1.7207325038052755e-12, 8.500523845895178e-15, 7.308987336528016e-18, 2.218637811713383e-13, 1.852507988176035e-15, -2.8321521190691695e-13, 1.5404909569235302e-15, 8.011258205940284e-18, -1.036974745867774e-14, 1.1931196884961725e-17, -9.524636627173742e-12, 1.8115536032390924e-14, 1.7538340833068258e-17, 1.9645539548134407e-24, -1.4510669693097704e-16, 6.097551477746296e-20, -1.5497429015517184e-13, 1.2443852118754788e-16, 8.819122666339995e-20, -1.3501569326925689e-12, 1.6879807505341366e-13, 1.4012289330114576e-16, 7.623154078522524e-20, -9.073864762048057e-21, 1.6331816265043853e-19, -2.1898788392165832e-18, 3.728429401056618e-18, 2.6318817690802806e-15, 1.8053373863649565e-18, 9.503262076679391e-17, 4.73431907363077e-19, -8.064123309653756e-16, -5.061748428568535e-16, -2.896214831672046e-15, 4.924211249350373e-17, 3.080555941597782e-14, 2.393337452967449e-14, 2.7048336918610147e-15, 1.0192116390216977e-12, -1.7258567474467655e-15, -1.8154397025975495e-12, 6.23090940028859e-15, -3.883066209686184e-12, -2.519822176813496e-15, 6.463790135524448e-14, 7.473701476518288e-11, -1.9167412132733304e-13, -2.4972351944067798e-11, -7.940734238954086e-18, 9.379046817347217e-14, -4.538939378404934e-12, -3.734756073217351e-19, -2.4378702910085936e-15, -1.947597888373327e-16, -7.339772711821914e-14, 1.0681461853502358e-16, -2.320254360925247e-15, -1.2964684890999232e-12, 1.5830424228828014e-12, -7.879125259687525e-11, 5.652634061137279e-14, -3.390636805879546e-12, 3.7598299176566544e-13, -1.3171252411067281e-12, -7.686143088670617e-14, -2.26082510322195e-11, -2.1170169146560095e-10, 5.853890148712394e-12, 9.316950647111312e-10, -6.510289543581868e-16, -4.077544229433571e-12, -1.6626904045814404e-10, 2.2081621640418367e-11, -1.741423872456723e-11, 9.734941954991306e-12, -2.2426183678522918e-12, -6.202443317532374e-10, -5.87270695191396e-12, 3.269499243389918e-10, 2.494948269135538e-12, 1.266900190401128e-09, 3.0241325826109856e-12, -4.260405630463274e-11, 1.2044650916231394e-11, -1.7631101115830113e-14, -8.864304614882673e-12, -4.399062446572717e-12, -2.7629582265498424e-12, 1.1707729357322852e-09, 1.6149511964696551e-12, 3.395001386944897e-11, 7.411083573360536e-12, 6.960907454022546e-11, 5.977271873009693e-12, 1.7009133850991445e-15, -6.726297913518595e-11, 1.6783759714633476e-11, 2.4586184643698524e-15, -6.168000604361367e-11, 4.612422117929714e-14, 3.846455020148353e-12, 1.0959150897157699e-10, 6.156139229010589e-14, -5.2292689334730935e-17, 8.352381844904837e-13, 2.9600209971534445e-11, 1.882980710582684e-14, -8.584065090207715e-21, -3.7516114298509873e-16, 3.854416422130758e-17, -7.09775723507916e-14, 1.1714462323960889e-17, 1.2203944890084833e-13, -1.5943861440317007e-12, -5.242571288376217e-13, 4.2817454492713104e-10, 4.999693768661408e-14, -2.853419896514257e-11, -3.6814816771334486e-14, 5.133905092277302e-11, 3.8986428068961046e-15, -1.1587268325185842e-11, 4.482783150494545e-11, -1.6298921827195417e-11, 1.2833908904261495e-10, 1.4274382779040665e-16, 3.088898036056929e-12, -1.0646461000584528e-10, 2.909496971559119e-10, 7.477821917650598e-10, 4.545891144277494e-11, -1.036561707590108e-11, -9.941510355902335e-12, -4.0867663845738623e-10, -2.203047750670355e-11, -3.5984464291612935e-11, 8.007027388973043e-11, -3.9363423296496486e-13, 1.160713806007605e-09, 6.260474349143565e-13, -4.6485955582599516e-14, -1.931119651935354e-11, -5.668909650758685e-14, -6.507650577843491e-11, -5.602819838660523e-11, 1.6114110476751867e-11, 1.2847246010184755e-11, -1.0392216034260187e-12, -1.5632419523727929e-09, 1.4816632962220447e-12, 1.0362301884214998e-12, 2.90172875141557e-09, -6.024862691509051e-13, -1.0759917965513456e-14, -2.4059015723395753e-11, 1.3188565163539546e-14, -7.84829653887866e-11, 2.348551256472817e-11, 8.709931029117446e-15, -2.3956726391359804e-15, -6.311922420047029e-11, 3.6838951678697275e-12, -7.890912328249787e-15, -9.388109432284863e-11, 6.424948773024963e-11, 4.26087425138561e-13, -5.806425421346034e-10, -8.041462553717887e-13, 1.7942641730178048e-11, 3.9959077844417647e-13, 1.2266863734093287e-09, -6.487698494141177e-13, 3.466221989464411e-15, 8.382814202323457e-12, 1.0424369603028244e-16, 5.8131154714394665e-12, -9.810475761713118e-12, -9.91211713927375e-15, -9.643810869528479e-11, 5.299624256271699e-13, -7.493292419236375e-10, 5.0484056935524376e-12, 5.452203972737991e-15, -1.0458533493699274e-12, 3.894294805431614e-14, 1.1968206272738694e-11, 1.720629678504534e-11, 1.5048404331375194e-14, 2.374988013262235e-17, -1.4511873068197483e-14, 2.5723924164978376e-16, -3.44146500810927e-11, 1.7001047694597177e-13, 1.4617969834740621e-16, -1.4848579587678433e-14, -6.160979458623384e-11, -1.0746871060322592e-14, -9.605305681610506e-17, -2.330294036250749e-10, 4.437275623456311e-12, -2.7806782740642503e-10, 8.21514369390273e-13, 3.705015981864682e-14, -5.664304238184454e-12, 3.0809819142925937e-14, -1.168628877587402e-11, 2.3433159029871035e-11, 6.151001115849004e-14, 1.6022519691254344e-16, -2.0739494912557348e-13, 2.3862394987413463e-16, -1.9049273247630187e-10, 3.623107206361549e-13, 3.507668479581758e-16, 1.5098253246690213e-13, 3.256786776440109e-10, 2.6775271610738877e-13, 3.821412951658055e-16, 0.0, -2.9021339298389373e-15, 1.2195308387497952e-18, -3.099485802993784e-12, 2.488770422795307e-15, 1.7638244579523442e-18, -2.7003138290445142e-11, 3.3759615008606194e-12, 2.8024578660214047e-15, 1.5246308157038059e-18, -8.403132847097582e-17, 1.2588364583752945e-11, 1.5958285929935283e-12, 4.636609160228695e-16, 6.705345960484973e-19], "intercept_": -18447.78539654224, "params": {"copy_X": true, "fit_intercept": true, "n_jobs": null, "normalize": false}}