{"meta": "linear-regression", "coef_": [-2.0224960132096165e-05, -0.21818914067703865, -1.0798042146529254, -0.1869046501512173, 0.2801346424436354, 0.05677672835634532, 0.14674305521017725, -0.0007433360000238815, -1.1547949780696378, -0.03198521183691491, 0.0010527802286026925, -181.76209357102425, 0.019428200083730696, 0.00019098356055448254, -0.00039749802720894244, -0.00021318400862284704, 1.0671344732808468e-06, 3.079965850296326e-05, -7.149789498312266e-06, 0.0366238969703799, -7.853504187510512, 0.0006077490732578821, -22.374001436467587, -3.928618004692262e-07, -0.00011725046843757103, 2.9209344648350204e-05, -1.9429951022661298e-08, 2.1059110205050377e-08, -2.902282453156723e-09, 2.7568208819189192e-05, -2.880058098084307, 2.927294200175839e-06, -0.022684306128506533, -0.013231088736423893, 7.403070040190585e-05, 7.155117439427983e-06, 2.980837545862869e-05, -5.5811231803204464e-05, 0.016349196636364347, 14.40694521765338, -0.0002942161901984264, -6.399890628044162, -5.845820389538403e-05, 1.4641528878200916e-08, -1.449676148013168e-07, 2.9186843164552556e-07, 0.0002461004504645814, 6.074050253915384, -5.634753231120726e-06, 0.0681081656429649, 3.968303463608436e-11, 3.765947553802107e-10, 5.424976023959971e-09, -5.482584821692171e-06, -0.0010281279421098521, -2.3172728447207191e-07, -0.0009962910978118522, 9.426358360542508e-09, 9.60089252544094e-09, -1.2930330195004558e-05, -0.0017154357862586359, 8.350601810036551e-07, -0.008710037872873666, 6.108844274876901e-08, 7.310305440633158e-05, -0.03905181764686583, 2.535778218515361e-06, 0.018736080089703594, 0.003708539165103275, -23.749270805543937, -9.893376570246915e-05, -20.571711985231303, 0.0, 0.06650778022572418, -3635.1381696498556, -9.283833435347333e-08, -0.2531019973278126, 4092.831151084832], "intercept_": -2241388.856820274, "params": {"copy_X": true, "fit_intercept": true, "n_jobs": null, "normalize": false}}