{"meta": "linear-regression", "coef_": [-2.7175358792275e-06, -0.04243165784842922, 0.019483023846606874, -0.0027065130894018577, -0.0022513900203718624, -0.00012225133275656694, -5.879932892443623e-06, -8.236956254459874e-06, 0.0003014488523281752, 3.933496676112218e-07, -0.000638078759264852, -0.021221805214034644, 0.07481874623350193, -6.45485552966857e-05, 0.041234050274013244, 8.159657027741879e-10, -0.014265488560161996, 0.00010296057513328056, -9.300880587437884e-08, 0.028893674801379186, -0.00017439055523376463, -7.115575489935466e-14, 9.261966280732503e-10, 2.2112519836720024e-07, 7.162853643549738e-12, 1.6708577071922193e-07, 4.286307387468824e-06, -0.00016474988424652892, 2.8012014485767622e-08, 0.000285611241355177, 0.0060388174197466005, 2.609722031032824e-06, -0.012762140488432716, 2.0621157559297387e-11, -5.35541689408725e-06, -0.00030136915006652443, 0.004186698726392803, -0.42443605543446405, 2.204996974355944e-05, 0.6295051899669607, 1.4963742566975602, -0.0012909655193937414, 0.8246809969935335, -1.7017957598675082e-08, 0.00019628988175825202, -5.432230624381492, 0.0, -0.2853097694193716, 0.0020592090702291964, -1.986917592750742e-06, 0.5778734960618168, -0.0034878111505355913, -3.08712083674223e-12, 3.779688263763184e-07, -0.1281127788237799, -0.026635205091625657], "intercept_": 397968.62233174936, "params": {"copy_X": true, "fit_intercept": true, "n_jobs": null, "normalize": false}}