{"meta": "linear-regression", "coef_": [-1.41282661046785, -2.7871546396352866, -0.008359173674249357, 0.00823357826670192, -0.018138028558947347, -0.0014860424543361483, -0.0011125747094735093, -0.0003554527729352828, -0.00012128367000399369, -0.0006945702054638043, -0.0003690507473810781, 1.9825583080898336e-06, 0.0002375009929319571, -0.0002305088630327552, -0.0003715213068855069, 0.035685186769102664, 8.468175547331674e-06, -0.006318516451113621, -0.0002905475396340634, 0.027817631169135222, 7.487012054252452e-05, -0.004915802191922769, 3.0587678141414967e-07, -0.008598165609573643, -0.002273315811217124, -3.1934874518230855e-07, 0.005153811021241942, -0.5481061730760962, 8.535819084821479e-14, -1.2426391960316613e-10, -8.429343436770027e-11, 1.7790892424247535e-05, 5.794493540317493e-13, -1.78503295478194e-09, -1.0962790397694988e-09, 2.990021747209526e-08, 1.2933066098702595e-05, -2.62907566485511e-10, -1.2953883526400922e-05, -1.4055315816600966e-07, 7.974777071761974e-05, 6.126712919548444e-09, 7.199065490043344e-06, 0.001288429131994128, -1.6089400256547037e-06, 0.00558909279758093, -6.8360386795696115e-12, 3.983502297605357e-07, -0.004877831185972999, -1.6782610200438697e-06, 1.1310439679945716e-05, -0.0035450366653635226, 3.0769046244216725e-07, 0.000988201635938192, 1.3238317857017234e-05, -0.007243408250868305, -6.464505632325368e-07, 0.0030781828743519507, 0.713641196537196, 0.00020114763957421178, -0.12641161895975167, -1.0985134401078622e-08, -4.3236428002191296e-05, -0.3002741900346437, 1.7504504447218155e-05, -0.005833411158719097, -3.610231824893728e-06, -0.001944034553933105, 0.5562967357069504, 0.001531800322981336, -0.0983136564218488, 3.088823339117419e-08, -0.0003175865203636219, 0.6838245118926378, 0.0, -0.17195901499834532, -0.04547011460389071, -7.00129740367067e-06, 0.10307508744849297, -10.962124941095416, 9.767526804732585e-11, 6.951161163337716e-07, -0.03233048552412794, -50.577399883063315], "intercept_": 50773.93206120552, "params": {"copy_X": true, "fit_intercept": true, "n_jobs": null, "normalize": false}}