{"meta": "linear-regression", "coef_": [2.489042210553441, 0.021950926642253628, 0.002870599639114507, 0.0001703354828665771, 0.00019406663122926272, 0.003280706202065364, -2.4540972641249103e-05, 6.569152043290202e-06, -1.8613192858729827e-05, -6.516237623432455e-05, 0.006213386457285517, -3.5544777720875604e-07, 0.003581309044496289, 0.006287603834073234, 0.0023006261548939796, 0.002240721737229286, 0.00013594376288689439, 0.012342763965962887, 0.0043898322367062715, 0.0015855733756990715, -0.0006840262356532131, -0.04171344651310102, 7.328362424123043e-11, 0.06630656797132954, -0.0004824972562310216, 4.2845650671189794e-08, 0.004167262608403691, -0.0005097173889127353, 1.906560280880371e-12, -8.153123406170592e-11, 1.5615231497853133e-08, -3.1855465554568487e-06, -1.3104992785395453e-11, -9.801428303354842e-08, 7.247219574353647e-07, 2.0701558112977414e-06, -0.0002858615061504099, 2.8334480278117274e-08, -0.00025308828778886766, 3.459005377892503e-06, -0.001319292299808603, 4.780859342613797e-08, -0.0003661499394362693, 0.12426581968120172, -6.633962643096125e-06, 0.07162956712599045, 2.3193120601144868e-12, -3.6873987060009883e-06, -0.004776041177021773, -2.159167164811175e-05, -0.0008155971828556294, 0.12575195265296396, 6.529022482847091e-06, 0.031078172672709757, -0.0002716232732814759, 0.04601226416511586, -1.4111154522012184e-05, -0.004372190797330546, 0.04481431383991527, 0.002718741744425194, 0.24685518173494417, -2.2409925033825724e-09, 0.0008563836671189491, 2.2568507353351106, -0.00032511701499881446, 0.08779656511944876, 3.574640252099453e-05, 0.008294535263149414, 0.03171138255744936, -0.013680592088554636, -0.8342689272476222, 5.479065938148245e-09, -0.0008164348883878472, -0.6370898562512014, 0.0, 1.3261313625731688, -0.009649955398744975, -7.832861570952754e-07, 0.08334525138298776, -0.010194346171534549, -1.7083556791419596e-14, -5.034008392747549e-07, 0.10715917893503865, -0.011286851569217982], "intercept_": -7934939.543886695, "params": {"copy_X": true, "fit_intercept": true, "n_jobs": null, "normalize": false}}